<?xml version="1.0"?>
<opencv_storage>
<opencv_ml_svm>
  <format>3</format>
  <svmType>C_SVC</svmType>
  <kernel>
    <type>POLY</type>
    <degree>3.4300000000000002e+00</degree>
    <gamma>1.0000000000000001e-05</gamma>
    <coef0>1.4000000000000001e+00</coef0></kernel>
  <C>1.0000000000000001e-01</C>
  <term_criteria><iterations>100</iterations></term_criteria>
  <var_count>3</var_count>
  <class_count>6</class_count>
  <class_labels type_id="opencv-matrix">
    <rows>6</rows>
    <cols>1</cols>
    <dt>i</dt>
    <data>
      0 1 2 3 4 5</data></class_labels>
  <sv_total>81</sv_total>
  <support_vectors>
    <_>
      2.88957672e+01 2.38286781e+01 1.68997177e+02</_>
    <_>
      5.67724686e+01 2.52550220e+01 2.18233200e+02</_>
    <_>
      6.17634125e+01 4.94175568e+01 2.10466583e+02</_>
    <_>
      6.32179871e+01 3.45152321e+01 2.18205505e+02</_>
    <_>
      5.91663551e+01 3.40948906e+01 2.11677811e+02</_>
    <_>
      6.42068253e+01 3.52247772e+01 2.18507813e+02</_>
    <_>
      6.09811096e+01 3.27279434e+01 2.19594025e+02</_>
    <_>
      6.68727112e+01 5.49354668e+01 2.32276047e+02</_>
    <_>
      2.08111107e-01 2.32299998e-01 2.54119705e+02</_>
    <_>
      5.64905891e+01 2.52033558e+01 2.17848175e+02</_>
    <_>
      2. 238. 255.</_>
    <_>
      1.02007530e+02 2.05221741e+02 2.02718628e+02</_>
    <_>
      9.77797546e+01 2.04225174e+02 2.23303711e+02</_>
    <_>
      8.92270660e+01 2.04500671e+02 2.18978134e+02</_>
    <_>
      9.77993774e+01 2.04268875e+02 2.23693420e+02</_>
    <_>
      9.98300018e+01 2.07235550e+02 2.27157104e+02</_>
    <_>
      9.13923111e+01 2.03579300e+02 2.16155029e+02</_>
    <_>
      7.78573761e+01 1.99372879e+02 2.04587173e+02</_>
    <_>
      8.29646988e+01 2.00694260e+02 1.98814667e+02</_>
    <_>
      7.13341217e+01 2.06612305e+02 2.49639572e+02</_>
    <_>
      9.95665665e+01 2.07142349e+02 2.26532104e+02</_>
    <_>
      9.94121857e+01 2.07047180e+02 2.26224319e+02</_>
    <_>
      9.14488525e+01 2.03535675e+02 2.15892426e+02</_>
    <_>
      9.76107025e+01 2.04261551e+02 2.23852646e+02</_>
    <_>
      2.49163757e+02 1.59493973e+02 0.</_>
    <_>
      2.22505157e+02 1.45183792e+02 0.</_>
    <_>
      2.13472427e+02 1.38914108e+02 2.93333340e-03</_>
    <_>
      2.22340805e+02 1.45071396e+02 0.</_>
    <_>
      2.18026917e+02 1.42244766e+02 0.</_>
    <_>
      2.23372726e+02 1.45950394e+02 1.46666670e-03</_>
    <_>
      2.48844727e+02 1.59843506e+02 0.</_>
    <_>
      2.13976822e+02 1.39200729e+02 0.</_>
    <_>
      2.18185120e+02 1.42316849e+02 0.</_>
    <_>
      2.16976273e+02 1.41688461e+02 6.74444437e-03</_>
    <_>
      1.82584503e+02 1.21783867e+02 3.03825226e+01</_>
    <_>
      2.05819183e+02 1.46802429e+02 5.81232681e+01</_>
    <_>
      1.85316620e+02 1.25478325e+02 2.98834114e+01</_>
    <_>
      2.18535126e+02 1.42472626e+02 2.22222225e-04</_>
    <_>
      4.47948761e+01 1.18450546e+02 2.52142929e+02</_>
    <_>
      7.12917328e+01 1.31722366e+02 2.52188293e+02</_>
    <_>
      7.10585480e+01 1.31302872e+02 2.52221085e+02</_>
    <_>
      4.93742905e+01 1.17304787e+02 2.52264130e+02</_>
    <_>
      3.41152992e+01 1.12209892e+02 2.52014679e+02</_>
    <_>
      3.39305344e+01 1.12151634e+02 2.52281784e+02</_>
    <_>
      4.45823898e+01 1.18220421e+02 2.52143204e+02</_>
    <_>
      5.01244316e+01 1.23587242e+02 2.52124359e+02</_>
    <_>
      6.87279816e+01 1.30925049e+02 2.51901138e+02</_>
    <_>
      6.87399979e+01 1.30947311e+02 2.51983749e+02</_>
    <_>
      5.28307991e+01 1.23320480e+02 2.51976715e+02</_>
    <_>
      5.01529655e+01 1.23597557e+02 2.52099060e+02</_>
    <_>
      6.95004196e+01 1.37931442e+02 2.53513336e+02</_>
    <_>
      9.79642029e+01 1.60808594e+02 2.53306122e+02</_>
    <_>
      6.43735809e+01 1.25937889e+02 2.52971588e+02</_>
    <_>
      5.09913559e+01 1.24278831e+02 2.52084152e+02</_>
    <_>
      4.46916542e+01 1.18342026e+02 2.52161575e+02</_>
    <_>
      5.85868988e+01 1.26391945e+02 2.51909561e+02</_>
    <_>
      5.14538765e+01 1.24696793e+02 2.52085709e+02</_>
    <_>
      1.60599640e+02 2.11363724e+02 0.</_>
    <_>
      1.52520615e+02 2.06224899e+02 0.</_>
    <_>
      1.64504120e+02 2.19297043e+02 2.80888882e-02</_>
    <_>
      1.64107483e+02 2.18545349e+02 0.</_>
    <_>
      1.58117294e+02 2.08785904e+02 5.23333345e-03</_>
    <_>
      1.72262482e+02 2.31641464e+02 4.13322210e-01</_>
    <_>
      1.50990860e+02 2.11503235e+02 1.45666664e-02</_>
    <_>
      1.50964935e+02 2.11542999e+02 1.46000003e-02</_>
    <_>
      1.65579193e+02 2.19661560e+02 2.22222225e-04</_>
    <_>
      1.58031342e+02 2.08744629e+02 1.35555561e-03</_>
    <_>
      1.43855301e+02 2.03726151e+02 4.13888879e-02</_>
    <_>
      1.01311722e+02 2.02808426e+02 7.24725037e+01</_>
    <_>
      1.01192276e+02 2.02462067e+02 7.33780136e+01</_>
    <_>
      1.01311165e+02 2.02985596e+02 7.27253418e+01</_>
    <_>
      1.09412186e+02 2.02236450e+02 6.45080872e+01</_>
    <_>
      8.32936020e+01 1.92411957e+02 5.21116333e+01</_>
    <_>
      8.88008423e+01 1.87710632e+02 4.97439880e+01</_>
    <_>
      1.65874573e+02 2.19922974e+02 5.33333339e-04</_>
    <_>
      2.51176254e+02 2.09051193e+02 1.55965485e+02</_>
    <_>
      2.51406021e+02 2.05769104e+02 1.44414551e+02</_>
    <_>
      2.50094650e+02 2.02609879e+02 1.41892883e+02</_>
    <_>
      2.03456482e+02 1.99446274e+02 2.01681229e+02</_>
    <_>
      2.00279373e+02 1.93607117e+02 1.98040527e+02</_>
    <_>
      2.07958069e+02 1.98310120e+02 1.93769272e+02</_></support_vectors>
  <decision_functions>
    <_>
      <sv_count>9</sv_count>
      <rho>-1.2024427629618424e+00</rho>
      <alpha>
        1.0000000000000001e-01 1.5213588187731697e-02
        1.0000000000000001e-01 1.0000000000000001e-01
        -6.4210118387971020e-03 -8.7925763489346189e-03
        -1.0000000000000001e-01 -1.0000000000000001e-01
        -1.0000000000000001e-01</alpha>
      <index>
        2 3 5 7 11 16 17 18 22</index></_>
    <_>
      <sv_count>6</sv_count>
      <rho>-2.5589931229864837e-01</rho>
      <alpha>
        1.0000000000000001e-01 1.0000000000000001e-01
        5.2727199267359789e-02 -1.0000000000000001e-01
        -5.2727199267359789e-02 -1.0000000000000001e-01</alpha>
      <index>
        0 2 4 34 35 36</index></_>
    <_>
      <sv_count>18</sv_count>
      <rho>-2.2607556253248378e+00</rho>
      <alpha>
        1.0000000000000001e-01 1.0000000000000001e-01
        1.0000000000000001e-01 1.0000000000000001e-01
        1.0000000000000001e-01 1.0000000000000001e-01
        1.0000000000000001e-01 6.9173078091734938e-02
        1.0000000000000001e-01 -1.0000000000000001e-01
        -1.0000000000000001e-01 -1.0000000000000001e-01
        -1.0000000000000001e-01 -1.0000000000000001e-01
        -6.9173078091734952e-02 -1.0000000000000001e-01
        -1.0000000000000001e-01 -1.0000000000000001e-01</alpha>
      <index>
        1 2 3 4 5 6 7 8 9 38 41 42 43 44 45 48 49 54</index></_>
    <_>
      <sv_count>6</sv_count>
      <rho>-1.1881375312805173e-01</rho>
      <alpha>
        1.0000000000000001e-01 1.0000000000000001e-01
        1.0000000000000001e-01 -1.0000000000000001e-01
        -1.0000000000000001e-01 -1.0000000000000001e-01</alpha>
      <index>
        0 2 4 69 72 73</index></_>
    <_>
      <sv_count>4</sv_count>
      <rho>-1.3097082096106736e+00</rho>
      <alpha>
        6.3864687551534058e-02 1.0000000000000001e-01
        -6.3864687551534058e-02 -1.0000000000000001e-01</alpha>
      <index>
        2 7 78 79</index></_>
    <_>
      <sv_count>6</sv_count>
      <rho>7.9015953136128014e-01</rho>
      <alpha>
        1.0000000000000001e-01 2.5983343006787184e-02
        1.0000000000000001e-01 -1.0000000000000001e-01
        -1.0000000000000001e-01 -2.5983343006787184e-02</alpha>
      <index>
        11 17 18 34 35 36</index></_>
    <_>
      <sv_count>21</sv_count>
      <rho>1.3989251923302612e+00</rho>
      <alpha>
        2.2651455614766416e-02 1.0000000000000001e-01
        1.0000000000000001e-01 1.0000000000000001e-01
        1.0000000000000001e-01 1.0000000000000001e-01
        1.0000000000000001e-01 1.0000000000000001e-01
        9.0437418929009538e-03 1.0000000000000001e-01
        1.0000000000000001e-01 -1.0000000000000001e-01
        -1.0000000000000001e-01 -1.0000000000000001e-01
        -1.0000000000000001e-01 -1.0000000000000001e-01
        -1.0000000000000001e-01 -1.0000000000000001e-01
        -3.1695197507667389e-02 -1.0000000000000001e-01
        -1.0000000000000001e-01</alpha>
      <index>
        10 12 13 14 16 17 18 19 21 22 23 39 40 46 47 50 51 52 53 55 56</index></_>
    <_>
      <sv_count>8</sv_count>
      <rho>1.5052882476074689e+00</rho>
      <alpha>
        1.0000000000000001e-01 1.0000000000000001e-01
        1.0000000000000001e-01 8.9872455445245164e-02
        -1.0000000000000001e-01 -1.0000000000000001e-01
        -1.0000000000000001e-01 -8.9872455445245164e-02</alpha>
      <index>
        11 17 18 22 68 69 70 71</index></_>
    <_>
      <sv_count>8</sv_count>
      <rho>-1.2665771583977834e+00</rho>
      <alpha>
        1.0000000000000001e-01 1.0000000000000001e-01
        1.0000000000000001e-01 3.6546966323098160e-02
        -3.6546966323098153e-02 -1.0000000000000001e-01
        -1.0000000000000001e-01 -1.0000000000000001e-01</alpha>
      <index>
        11 15 20 21 77 78 79 80</index></_>
    <_>
      <sv_count>4</sv_count>
      <rho>-5.2492101905182253e-01</rho>
      <alpha>
        8.2261635866122354e-02 1.0000000000000001e-01
        -8.2261635866122326e-02 -1.0000000000000001e-01</alpha>
      <index>
        34 35 39 40</index></_>
    <_>
      <sv_count>24</sv_count>
      <rho>-4.8160114595308340e-01</rho>
      <alpha>
        1.0000000000000001e-01 1.0000000000000001e-01
        1.0000000000000001e-01 1.0000000000000001e-01
        4.1124123075173227e-02 1.0000000000000001e-01
        1.0000000000000001e-01 1.0000000000000001e-01
        1.0000000000000001e-01 1.0000000000000001e-01
        1.0000000000000001e-01 1.0000000000000001e-01
        -1.0000000000000001e-01 -1.0000000000000001e-01
        -7.9655040451711928e-02 -1.0000000000000001e-01
        -1.0000000000000001e-01 -1.0000000000000001e-01
        -1.0000000000000001e-01 -1.0000000000000001e-01
        -1.0000000000000001e-01 -1.0000000000000001e-01
        -6.1469082623461298e-02 -1.0000000000000001e-01</alpha>
      <index>
        25 26 27 28 29 31 32 33 34 35 36 37 57 58 59 60 61 63 64 65 66
        67 73 74</index></_>
    <_>
      <sv_count>7</sv_count>
      <rho>-1.7083120638138893e+00</rho>
      <alpha>
        5.1729744771206287e-02 1.0000000000000001e-01
        1.0000000000000001e-01 -2.4323296673769784e-02
        -1.0000000000000001e-01 -1.0000000000000001e-01
        -2.7406448097436510e-02</alpha>
      <index>
        24 30 35 75 76 77 79</index></_>
    <_>
      <sv_count>7</sv_count>
      <rho>7.9922276681059168e-01</rho>
      <alpha>
        6.4139612176384170e-02 1.0000000000000001e-01
        3.7982068194551605e-02 5.6930202480081238e-02
        -5.9051882851017035e-02 -1.0000000000000001e-01
        -1.0000000000000001e-01</alpha>
      <index>
        42 46 47 51 68 69 70</index></_>
    <_>
      <sv_count>6</sv_count>
      <rho>-1.1267935477497182e+00</rho>
      <alpha>
        7.2413678819689450e-02 1.0000000000000001e-01
        1.0000000000000001e-01 -1.0000000000000001e-01
        -1.0000000000000001e-01 -7.2413678819689450e-02</alpha>
      <index>
        39 50 51 78 79 80</index></_>
    <_>
      <sv_count>7</sv_count>
      <rho>-1.7698745048388942e+00</rho>
      <alpha>
        7.5636537213099223e-02 1.0000000000000001e-01
        5.7463699556349120e-02 -2.4449812398553369e-02
        -1.0000000000000001e-01 -1.0000000000000001e-01
        -8.6504243708949175e-03</alpha>
      <index>
        62 69 70 76 77 79 80</index></_></decision_functions></opencv_ml_svm>
</opencv_storage>
