<?xml version="1.0"?>
<opencv_storage>
<opencv_ml_svm>
  <format>3</format>
  <svmType>C_SVC</svmType>
  <kernel>
    <type>POLY</type>
    <degree>4.9000000000000005e-01</degree>
    <gamma>5.0625000000000009e-01</gamma>
    <coef0>1.0000000000000001e-01</coef0></kernel>
  <C>5.0000000000000000e-01</C>
  <term_criteria><iterations>100</iterations></term_criteria>
  <var_count>3</var_count>
  <class_count>6</class_count>
  <class_labels type_id="opencv-matrix">
    <rows>6</rows>
    <cols>1</cols>
    <dt>i</dt>
    <data>
      0 1 2 3 4 5</data></class_labels>
  <sv_total>52</sv_total>
  <support_vectors>
    <_>
      6.68727112e+01 5.49354668e+01 2.32276047e+02</_>
    <_>
      2.08111107e-01 2.32299998e-01 2.54119705e+02</_>
    <_>
      7.74858904e+00 1.06559000e+01 7.17352524e+01</_>
    <_>
      6.29756689e+00 1.00640669e+01 1.16604454e+02</_>
    <_>
      6.67514467e+00 1.07484779e+01 1.21718430e+02</_>
    <_>
      8.29851151e+00 1.19425220e+01 1.14014778e+02</_>
    <_>
      2.75022221e+00 7.18559980e+00 1.06303642e+02</_>
    <_>
      1.59684443e+00 5.58202219e+00 5.18256454e+01</_>
    <_>
      2.11290002e+00 7.82885551e+00 8.64765244e+01</_>
    <_>
      2.62823334e+01 2.74555893e+01 1.09027702e+02</_>
    <_>
      6.45486755e+01 6.11951675e+01 1.49209290e+02</_>
    <_>
      6.72267685e+01 6.16615677e+01 1.46220352e+02</_>
    <_>
      3.93441105e+00 7.32476664e+00 8.14075012e+01</_>
    <_>
      1.02007530e+02 2.05221741e+02 2.02718628e+02</_>
    <_>
      9.98300018e+01 2.07235550e+02 2.27157104e+02</_>
    <_>
      7.13341217e+01 2.06612305e+02 2.49639572e+02</_>
    <_>
      1.10950336e+01 5.98708992e+01 7.84128113e+01</_>
    <_>
      1.15215330e+01 6.04205093e+01 7.84686432e+01</_>
    <_>
      4.08773117e+01 1.28061417e+02 1.59096588e+02</_>
    <_>
      4.90043907e+01 1.82899200e+02 1.21599388e+02</_>
    <_>
      9.94905567e+00 1.11538269e+02 1.61601379e+02</_>
    <_>
      2.05819183e+02 1.46802429e+02 5.81232681e+01</_>
    <_>
      5.00148239e+01 3.39611320e+01 4.66521120e+00</_>
    <_>
      1.59794144e+02 1.27512848e+02 4.96038551e+01</_>
    <_>
      9.79642029e+01 1.60808594e+02 2.53306122e+02</_>
    <_>
      9.36410046e+00 2.63741550e+01 8.78873367e+01</_>
    <_>
      9.22098923e+00 2.63632774e+01 8.77851410e+01</_>
    <_>
      1.08526773e+01 2.71431446e+01 8.60463791e+01</_>
    <_>
      9.04912186e+00 2.62262440e+01 8.77528992e+01</_>
    <_>
      1.00078554e+01 2.68218231e+01 8.74814682e+01</_>
    <_>
      2.58994007e+01 8.08849792e+01 1.83449142e+02</_>
    <_>
      6.12370014e+00 2.45390892e+01 1.52530197e+02</_>
    <_>
      6.79654455e+00 2.46596336e+01 1.51927094e+02</_>
    <_>
      1.40434332e+01 3.56122017e+01 1.87231796e+02</_>
    <_>
      1.89310226e+01 3.87383652e+01 1.94776184e+02</_>
    <_>
      1.01222887e+01 3.23796768e+01 1.91066528e+02</_>
    <_>
      3.15974331e+01 5.58554001e+01 2.43110962e+02</_>
    <_>
      1.60599640e+02 2.11363724e+02 0.</_>
    <_>
      1.93866997e+01 5.48793221e+01 2.09955673e+01</_>
    <_>
      7.96308441e+01 1.30394073e+02 6.38407326e+01</_>
    <_>
      1.16368309e+02 1.36826355e+02 5.92328987e+01</_>
    <_>
      1.15900414e+02 1.38472504e+02 5.97124672e+01</_>
    <_>
      7.31888657e+01 1.54673828e+02 7.19075699e+01</_>
    <_>
      5.78153114e+01 6.24901123e+01 5.55446205e+01</_>
    <_>
      5.66880226e+01 5.90136871e+01 6.15059662e+01</_>
    <_>
      5.80877113e+01 6.26996117e+01 5.56239204e+01</_>
    <_>
      2.48057220e+02 1.89134384e+02 1.04147964e+02</_>
    <_>
      2.48229355e+02 1.91711014e+02 1.05110336e+02</_>
    <_>
      2.41610001e+02 1.83288895e+02 1.00775391e+02</_>
    <_>
      1.34999130e+02 1.32506485e+02 1.40368713e+02</_>
    <_>
      1.47237244e+02 1.52942215e+02 1.51878891e+02</_>
    <_>
      1.33709747e+02 1.40417328e+02 1.38913651e+02</_></support_vectors>
  <decision_functions>
    <_>
      <sv_count>3</sv_count>
      <rho>8.6387592930769808e-02</rho>
      <alpha>
        2.0682185201884545e-01 2.0133192281294299e-01
        -4.0815377483178833e-01</alpha>
      <index>
        7 11 16</index></_>
    <_>
      <sv_count>3</sv_count>
      <rho>3.9971382258062627e-01</rho>
      <alpha>
        5.6464679874549041e-02 -1.8751175686639768e-02
        -3.7713504187909273e-02</alpha>
      <index>
        11 22 23</index></_>
    <_>
      <sv_count>24</sv_count>
      <rho>-2.8846787965234495e+00</rho>
      <alpha>
        7.5286404570321180e-02 5.0000000000000000e-01
        1.8801653285428030e-01 3.7103403953244485e-01
        5.0000000000000000e-01 1.8379360096913194e-01
        5.0000000000000000e-01 3.6529700511885677e-01
        5.0000000000000000e-01 3.5704083298331823e-01
        5.0000000000000000e-01 5.0000000000000000e-01
        9.8323879055700059e-02 -5.0000000000000000e-01
        -5.0000000000000000e-01 -5.0000000000000000e-01
        -5.0000000000000000e-01 -5.0000000000000000e-01
        -5.0000000000000000e-01 -5.0000000000000000e-01
        -5.0000000000000000e-01 -5.0000000000000000e-01
        -4.4663067734515630e-02 -9.4129227349537534e-02</alpha>
      <index>
        0 1 2 3 4 5 6 7 8 9 10 11 12 25 26 27 28 29 31 32 33 34 35 36</index></_>
    <_>
      <sv_count>3</sv_count>
      <rho>4.5849701988176039e-01</rho>
      <alpha>
        6.2605452362837932e-02 2.6018619362871618e-02
        -8.8624071725709547e-02</alpha>
      <index>
        7 11 38</index></_>
    <_>
      <sv_count>3</sv_count>
      <rho>1.0583060850666399e+00</rho>
      <alpha>
        2.6592540948975057e-01 -1.3734957761644498e-01
        -1.2857583187330582e-01</alpha>
      <index>
        11 44 49</index></_>
    <_>
      <sv_count>4</sv_count>
      <rho>3.3486349346022504e-01</rho>
      <alpha>
        3.2448051274219084e-02 3.3548939437291217e-02
        -2.6450976510231837e-02 -3.9546014201278470e-02</alpha>
      <index>
        17 19 22 23</index></_>
    <_>
      <sv_count>7</sv_count>
      <rho>-9.5253857550989662e-01</rho>
      <alpha>
        2.3508020230236035e-01 6.4002916133415327e-02
        1.6800123694727020e-01 3.2671922218959637e-01
        -5.0000000000000000e-01 -1.2145088756417494e-01
        -1.7235269000846731e-01</alpha>
      <index>
        14 15 18 20 24 27 30</index></_>
    <_>
      <sv_count>3</sv_count>
      <rho>3.1401974045238159e+00</rho>
      <alpha>
        4.8812258560357522e-02 3.9654738575319226e-01
        -4.4535964431354974e-01</alpha>
      <index>
        17 19 42</index></_>
    <_>
      <sv_count>5</sv_count>
      <rho>1.1339239696347447e+00</rho>
      <alpha>
        1.9484781299491730e-01 1.0883413452539567e-01
        -6.4839499999112010e-02 -1.6019117797841459e-02
        -2.2282332972335944e-01</alpha>
      <index>
        13 17 44 50 51</index></_>
    <_>
      <sv_count>3</sv_count>
      <rho>-3.6088785134206541e-01</rho>
      <alpha>
        4.4609843810406738e-02 3.0326441411754040e-03
        -4.7642487951582151e-02</alpha>
      <index>
        22 23 27</index></_>
    <_>
      <sv_count>6</sv_count>
      <rho>-4.5813967782340914e-01</rho>
      <alpha>
        2.4257746146299948e-02 6.1303767517253992e-02
        5.0000000000000000e-01 -6.1232791305003580e-02
        -5.0000000000000000e-01 -2.4328722358550312e-02</alpha>
      <index>
        21 22 23 37 40 41</index></_>
    <_>
      <sv_count>5</sv_count>
      <rho>-3.4691564291570844e+00</rho>
      <alpha>
        5.0000000000000000e-01 5.0000000000000000e-01
        -2.8240807477484126e-01 -2.1759192522515644e-01
        -5.0000000000000000e-01</alpha>
      <index>
        21 23 45 46 48</index></_>
    <_>
      <sv_count>3</sv_count>
      <rho>6.7792648495604668e-01</rho>
      <alpha>
        9.0843769779017799e-02 -8.4111132669765096e-02
        -6.7326371092527116e-03</alpha>
      <index>
        27 38 39</index></_>
    <_>
      <sv_count>4</sv_count>
      <rho>1.1256543875187965e+00</rho>
      <alpha>
        4.6795074115984964e-02 1.3325132163076919e-01
        -1.5947678076315458e-01 -2.0569614983599566e-02</alpha>
      <index>
        24 27 44 49</index></_>
    <_>
      <sv_count>5</sv_count>
      <rho>4.8072665817523424e-01</rho>
      <alpha>
        5.0000000000000000e-01 5.0000000000000000e-01
        -4.1297171451282769e-02 -5.0000000000000000e-01
        -4.5870282854871730e-01</alpha>
      <index>
        40 41 43 45 47</index></_></decision_functions></opencv_ml_svm>
</opencv_storage>
