<?xml version="1.0"?>
<opencv_storage>
<opencv_ml_svm>
  <format>3</format>
  <svmType>C_SVC</svmType>
  <kernel>
    <type>POLY</type>
    <degree>4.9000000000000005e-01</degree>
    <gamma>5.0625000000000009e-01</gamma>
    <coef0>1.0000000000000001e-01</coef0></kernel>
  <C>5.0000000000000000e-01</C>
  <term_criteria><iterations>100</iterations></term_criteria>
  <var_count>3</var_count>
  <class_count>6</class_count>
  <class_labels type_id="opencv-matrix">
    <rows>6</rows>
    <cols>1</cols>
    <dt>i</dt>
    <data>
      0 1 2 3 4 5</data></class_labels>
  <sv_total>39</sv_total>
  <support_vectors>
    <_>
      6.17634125e+01 4.94175568e+01 2.10466583e+02</_>
    <_>
      6.68727112e+01 5.49354668e+01 2.32276047e+02</_>
    <_>
      7.74858904e+00 1.06559000e+01 7.17352524e+01</_>
    <_>
      8.29111099e+00 1.03727226e+01 7.24868469e+01</_>
    <_>
      8.44737816e+00 1.00781441e+01 7.23199234e+01</_>
    <_>
      8.26708889e+00 9.84726620e+00 7.29711075e+01</_>
    <_>
      8.17884445e+00 1.02266111e+01 7.29984589e+01</_>
    <_>
      1.02007530e+02 2.05221741e+02 2.02718628e+02</_>
    <_>
      7.13341217e+01 2.06612305e+02 2.49639572e+02</_>
    <_>
      7.92496681e+00 5.96162872e+01 8.05130005e+01</_>
    <_>
      1.12778559e+01 5.99331322e+01 7.82763443e+01</_>
    <_>
      7.91283321e+00 5.95845985e+01 8.03827972e+01</_>
    <_>
      1.15215330e+01 6.04205093e+01 7.84686432e+01</_>
    <_>
      4.08773117e+01 1.28061417e+02 1.59096588e+02</_>
    <_>
      4.90043907e+01 1.82899200e+02 1.21599388e+02</_>
    <_>
      1.82584503e+02 1.21783867e+02 3.03825226e+01</_>
    <_>
      2.05819183e+02 1.46802429e+02 5.81232681e+01</_>
    <_>
      5.00148239e+01 3.39611320e+01 4.66521120e+00</_>
    <_>
      9.79642029e+01 1.60808594e+02 2.53306122e+02</_>
    <_>
      9.36410046e+00 2.63741550e+01 8.78873367e+01</_>
    <_>
      9.22098923e+00 2.63632774e+01 8.77851410e+01</_>
    <_>
      1.08526773e+01 2.71431446e+01 8.60463791e+01</_>
    <_>
      9.04912186e+00 2.62262440e+01 8.77528992e+01</_>
    <_>
      1.00078554e+01 2.68218231e+01 8.74814682e+01</_>
    <_>
      8.54224491e+00 4.78847351e+01 1.66342316e+02</_>
    <_>
      2.58994007e+01 8.08849792e+01 1.83449142e+02</_>
    <_>
      1.60599640e+02 2.11363724e+02 0.</_>
    <_>
      1.93866997e+01 5.48793221e+01 2.09955673e+01</_>
    <_>
      7.96308441e+01 1.30394073e+02 6.38407326e+01</_>
    <_>
      1.16368309e+02 1.36826355e+02 5.92328987e+01</_>
    <_>
      1.15900414e+02 1.38472504e+02 5.97124672e+01</_>
    <_>
      7.31888657e+01 1.54673828e+02 7.19075699e+01</_>
    <_>
      5.78153114e+01 6.24901123e+01 5.55446205e+01</_>
    <_>
      5.66880226e+01 5.90136871e+01 6.15059662e+01</_>
    <_>
      5.80877113e+01 6.26996117e+01 5.56239204e+01</_>
    <_>
      2.48229355e+02 1.91711014e+02 1.05110336e+02</_>
    <_>
      2.41610001e+02 1.83288895e+02 1.00775391e+02</_>
    <_>
      255. 1.63200653e+02 1.10256081e+02</_>
    <_>
      1.34999130e+02 1.32506485e+02 1.40368713e+02</_></support_vectors>
  <decision_functions>
    <_>
      <sv_count>5</sv_count>
      <rho>-4.8074861571250216e-01</rho>
      <alpha>
        1.8100104461673022e-02 3.2758403117619288e-02
        2.3375386008215637e-01 -2.2045441613860095e-01
        -6.4157951522847756e-02</alpha>
      <index>
        0 1 2 9 11</index></_>
    <_>
      <sv_count>2</sv_count>
      <rho>1.8054163148721941e-01</rho>
      <alpha>
        4.5480313201104010e-02 -4.5480313201104017e-02</alpha>
      <index>
        2 17</index></_>
    <_>
      <sv_count>12</sv_count>
      <rho>-3.2280603490837989e-01</rho>
      <alpha>
        4.2832483941171057e-01 5.0000000000000000e-01
        5.0000000000000000e-01 5.0000000000000000e-01
        1.8616207621914702e-01 5.0000000000000000e-01
        -5.0000000000000000e-01 -5.0000000000000000e-01
        -5.0000000000000000e-01 -5.0000000000000000e-01
        -5.0000000000000000e-01 -1.1448691563085771e-01</alpha>
      <index>
        1 2 3 4 5 6 19 20 21 22 23 24</index></_>
    <_>
      <sv_count>2</sv_count>
      <rho>2.7480027056469369e-01</rho>
      <alpha>
        7.6994041526334961e-02 -7.6994041526334961e-02</alpha>
      <index>
        2 27</index></_>
    <_>
      <sv_count>3</sv_count>
      <rho>5.0765797466566294e-02</rho>
      <alpha>
        3.3008637276290366e-02 9.4753665902934298e-02
        -1.2776230317922471e-01</alpha>
      <index>
        0 2 33</index></_>
    <_>
      <sv_count>4</sv_count>
      <rho>5.0864071439329617e-01</rho>
      <alpha>
        5.9926146830000367e-02 1.9351395848164793e-03
        -7.4451231956395979e-03 -5.4416163219177270e-02</alpha>
      <index>
        12 14 16 17</index></_>
    <_>
      <sv_count>6</sv_count>
      <rho>-1.1429503646046464e+00</rho>
      <alpha>
        2.2818335645341870e-01 5.1978402191392784e-02
        4.7516672309816155e-01 -5.0000000000000000e-01
        -1.7446359983695478e-01 -8.0864881906018121e-02</alpha>
      <index>
        8 9 13 18 21 25</index></_>
    <_>
      <sv_count>3</sv_count>
      <rho>3.1401974045238159e+00</rho>
      <alpha>
        4.8812258560357522e-02 3.9654738575319226e-01
        -4.4535964431354974e-01</alpha>
      <index>
        12 14 31</index></_>
    <_>
      <sv_count>5</sv_count>
      <rho>1.3237550554520154e+00</rho>
      <alpha>
        9.2597009616477224e-02 3.6979735251540309e-02
        1.5599374778006708e-01 -1.9617292230549221e-01
        -8.9397570342592214e-02</alpha>
      <index>
        7 10 12 33 38</index></_>
    <_>
      <sv_count>2</sv_count>
      <rho>-4.6255643447221995e-01</rho>
      <alpha>
        4.7507894301894338e-02 -4.7507894301894338e-02</alpha>
      <index>
        17 21</index></_>
    <_>
      <sv_count>4</sv_count>
      <rho>-4.2386228086613864e-01</rho>
      <alpha>
        3.5212352134747443e-01 1.2522817655509910e-01
        -5.5259721670574490e-02 -4.2209197623199896e-01</alpha>
      <index>
        16 17 26 29</index></_>
    <_>
      <sv_count>6</sv_count>
      <rho>-2.3292475764438079e+00</rho>
      <alpha>
        1.2936738412867183e-01 5.0000000000000000e-01
        -5.5499852981226918e-03 -1.2068635695695752e-01
        -4.9409300564462838e-01 -9.0380362289631498e-03</alpha>
      <index>
        15 16 32 34 36 37</index></_>
    <_>
      <sv_count>3</sv_count>
      <rho>6.7792648495604668e-01</rho>
      <alpha>
        9.0843769779017799e-02 -8.4111132669765096e-02
        -6.7326371092527116e-03</alpha>
      <index>
        21 27 28</index></_>
    <_>
      <sv_count>4</sv_count>
      <rho>1.1256543875187965e+00</rho>
      <alpha>
        4.6795074115984964e-02 1.3325132163076919e-01
        -1.5947678076315458e-01 -2.0569614983599566e-02</alpha>
      <index>
        18 21 33 38</index></_>
    <_>
      <sv_count>5</sv_count>
      <rho>4.8072665817523424e-01</rho>
      <alpha>
        5.0000000000000000e-01 5.0000000000000000e-01
        -4.1297171451282769e-02 -5.0000000000000000e-01
        -4.5870282854871730e-01</alpha>
      <index>
        29 30 32 34 35</index></_></decision_functions></opencv_ml_svm>
</opencv_storage>
